{"name":"multivariateLinearRegression","weights":[[0.00045454598770974797,-0.00012901171068013806,-0.0003255350828828274],[0.0022258447997268727,-0.00038252682006911787,-0.00184331797954973],[0.42519052800522417,-0.11069619981165602,-0.31449432818455136],[0.0007473422710668753,-0.00023672342766656307,-0.0005106188433454117],[0.0013353037377286103,-0.0004978782336455545,-0.0008374255040530798],[0.6776866273251372,-0.25264068337378376,-0.4250459439438288],[0.00045454618476775677,-0.00012901067315840287,-0.00032553470571836107],[-0.00010921560192400648,0.0016954993725353251,-0.0015862837704860855],[0.07077285297439317,-0.03268312939464835,-0.03808972356802087],[0.005740819693397459,-0.000709300292813797,-0.005031519400263917],[-0.0001301060719068603,0.0005639671736461793,-0.00043386110172349834],[-0.43643006051915734,1.3258174721374019,-0.8893874116078706],[-0.0009960976347241357,-0.00103986515083912,0.0020359627855804086],[-0.0004627953086853154,-0.0005316789050727744,0.0009944742137897311],[-0.014289743872737404,-0.22225536323355755,0.2365451071216711],[-0.00010813160023770418,-0.00018346984003250744,0.000291601440290834],[-0.000616646649457292,-0.00048823168615907964,0.0011048783356304992],[-0.44563680517995863,-0.323331722673629,0.7689685278555416],[0.41468989362033426,1.99139704160757,0.5939130646356716]],"inputs":18,"outputs":3,"intercept":true,"summary":{"regressionStatistics":{"standardError":0.10159592998155974,"observations":3},"variables":[{"label":"X Variable 1","coefficients":[0.00045454598770974797,-0.00012901171068013806,-0.0003255350828828274],"standardError":486.53146337826837,"tStat":9.342581557903227e-7},{"label":"X Variable 2","coefficients":[0.0022258447997268727,-0.00038252682006911787,-0.00184331797954973],"standardError":0.0006614520868450459,"tStat":3.365088483345139},{"label":"X Variable 3","coefficients":[0.42519052800522417,-0.11069619981165602,-0.31449432818455136],"standardError":0.1292180855356383,"tStat":3.290487753650837},{"label":"X Variable 4","coefficients":[0.0007473422710668753,-0.00023672342766656307,-0.0005106188433454117],"standardError":0.00032737972086394464,"tStat":2.282799524340307},{"label":"X Variable 5","coefficients":[0.0013353037377286103,-0.0004978782336455545,-0.0008374255040530798],"standardError":0.00024837215844884076,"tStat":5.3762214978844085},{"label":"X Variable 6","coefficients":[0.6776866273251372,-0.25264068337378376,-0.4250459439438288],"standardError":0.06740515666944756,"tStat":10.053928524318811},{"label":"X Variable 7","coefficients":[0.00045454618476775677,-0.00012901067315840287,-0.00032553470571836107],"standardError":486.5314633782802,"tStat":9.342585608165391e-7},{"label":"X Variable 8","coefficients":[-0.00010921560192400648,0.0016954993725353251,-0.0015862837704860855],"standardError":0.0006195592323116891,"tStat":-0.17627951651451151},{"label":"X Variable 9","coefficients":[0.07077285297439317,-0.03268312939464835,-0.03808972356802087],"standardError":0.13169122239842374,"tStat":0.5374151115423186},{"label":"X Variable 10","coefficients":[0.005740819693397459,-0.000709300292813797,-0.005031519400263917],"standardError":0.003616861123652643,"tStat":1.5872380766447136},{"label":"X Variable 11","coefficients":[-0.0001301060719068603,0.0005639671736461793,-0.00043386110172349834],"standardError":0.00012795792750588128,"tStat":-1.016787896169077},{"label":"X Variable 12","coefficients":[-0.43643006051915734,1.3258174721374019,-0.8893874116078706],"standardError":0.12193034524122666,"tStat":-3.579339168241715},{"label":"X Variable 13","coefficients":[-0.0009960976347241357,-0.00103986515083912,0.0020359627855804086],"standardError":0.0001281614536171133,"tStat":-7.77220924553502},{"label":"X Variable 14","coefficients":[-0.0004627953086853154,-0.0005316789050727744,0.0009944742137897311],"standardError":0.00025811589971755144,"tStat":-1.7929748194192552},{"label":"X Variable 15","coefficients":[-0.014289743872737404,-0.22225536323355755,0.2365451071216711],"standardError":0.13434660193660738,"tStat":-0.10636475851827011},{"label":"X Variable 16","coefficients":[-0.00010813160023770418,-0.00018346984003250744,0.000291601440290834],"standardError":0.00013121184627077546,"tStat":-0.8240993729678819},{"label":"X Variable 17","coefficients":[-0.000616646649457292,-0.00048823168615907964,0.0011048783356304992],"standardError":0.00012869936258678752,"tStat":-4.79137298789231},{"label":"X Variable 18","coefficients":[-0.44563680517995863,-0.323331722673629,0.7689685278555416],"standardError":0.06439625987176407,"tStat":-6.920228070191972},{"label":"Intercept","coefficients":[0.41468989362033426,1.99139704160757,0.5939130646356716],"standardError":0.2529771942080874,"tStat":1.639238251963651}]}}